<?xml version="1.0"?>
<opencv_storage>
<opencv_ml_svm>
  <format>3</format>
  <svmType>C_SVC</svmType>
  <kernel>
    <type>LINEAR</type></kernel>
  <C>1.</C>
  <term_criteria><iterations>100</iterations></term_criteria>
  <var_count>576</var_count>
  <class_count>2</class_count>
  <class_labels type_id="opencv-matrix">
    <rows>2</rows>
    <cols>1</cols>
    <dt>i</dt>
    <data>
      -1 1</data></class_labels>
  <sv_total>1</sv_total>
  <support_vectors>
    <_>
      6.01918087e-004 5.71032811e-004 4.41022537e-004 1.16141011e-004
      -2.15932523e-005 1.41165328e-005 1.30598783e-004 1.89286235e-004
      2.57319218e-004 3.15241283e-004 3.17813334e-004 2.26673117e-004
      1.39780965e-007 -1.04827574e-004 -5.70211305e-005 1.55702233e-004
      5.94946250e-005 1.03998027e-004 1.65172023e-004 2.13296618e-004
      2.67383235e-004 4.27588180e-004 5.16857544e-004 4.48154868e-004
      2.30043006e-004 2.73922255e-004 2.44414579e-004 -1.59686551e-005
      -1.11810834e-004 -7.07821964e-005 9.05979614e-005 3.31104413e-004
      2.10379207e-004 2.48292868e-004 1.74849614e-004 6.73565228e-005
      -7.03758997e-005 -1.11938614e-004 -1.20415198e-005 1.46620601e-004
      1.06191037e-004 9.78994867e-005 1.72831773e-004 2.18158239e-004
      2.45463860e-004 3.74730909e-004 3.88821849e-004 3.25089379e-004
      -6.21860163e-005 -2.89530417e-005 6.21692307e-005 -9.64292558e-005
      -1.38483214e-004 -7.71641207e-005 1.33648762e-004 3.90528527e-004
      1.02604630e-004 1.21063415e-004 3.02333319e-005 -1.55726797e-004
      -1.58578769e-004 -8.29443816e-005 1.99145070e-005 8.27004187e-005
      -9.88713236e-006 -6.31877920e-005 -1.42249291e-005 8.18958652e-005
      8.32444202e-005 1.40490331e-004 1.64100275e-004 9.17202851e-005
      -1.24773142e-004 -1.54811074e-004 -1.34925431e-004
      -2.25693759e-004 -1.49065600e-004 -5.57276871e-005 1.01310077e-004
      3.20022285e-004 4.10909233e-005 4.06913750e-005 -8.89614894e-005
      -2.23858136e-004 -1.87825091e-004 -5.44660361e-005
      -4.62326461e-005 -1.45787431e-004 -1.91265106e-004
      -2.26767967e-004 -1.35671682e-004 -4.42008350e-005
      -3.80894489e-005 -2.04723965e-005 2.14969677e-005 3.05524882e-005
      5.70316988e-005 -1.41824261e-004 -2.26725548e-004 -3.20042542e-004
      -1.83474986e-004 -1.05824067e-004 5.76756756e-005 2.33903338e-004
      8.66085538e-005 -1.12273274e-005 -1.24404833e-004 -2.27597280e-004
      -1.53230387e-004 1.14349023e-005 -6.31497096e-005 -2.11096645e-004
      -2.34591658e-004 -2.38631997e-004 -6.21264553e-005
      -1.16192823e-005 -6.95644776e-005 -3.07059199e-005 5.74807636e-005
      1.03293685e-004 2.78776570e-004 2.47956687e-005 -1.75032561e-004
      -3.27650661e-004 -1.33797046e-004 -6.93767049e-007 1.84544813e-004
      3.87356791e-004 1.58022536e-004 -3.41745290e-005 -1.79049326e-004
      -1.47896659e-004 4.61276941e-005 2.25168988e-004 1.88811013e-004
      3.86305837e-005 -1.85009107e-004 -1.02123078e-004 8.43500602e-005
      1.03183207e-004 1.14543718e-005 1.26326782e-007 6.13779630e-005
      1.06760781e-004 4.17588366e-004 1.33008754e-004 -9.40091631e-005
      -2.68450793e-004 -1.21713885e-004 -9.38651465e-006 1.64429614e-004
      2.96843296e-004 2.36637745e-004 -5.37257147e-005 -1.86511243e-004
      2.61988753e-005 2.80023960e-004 3.99209501e-004 3.39900813e-004
      2.19668334e-004 -2.95779155e-005 9.77282834e-005 2.32075632e-004
      1.86728677e-004 4.12287700e-005 4.48402761e-006 4.66273923e-005
      4.79181892e-007 3.43813386e-004 8.06715034e-005 -1.22243713e-004
      -3.10192641e-004 -2.02712763e-004 -1.21418583e-004
      -7.57447560e-005 -7.63795197e-006 2.39501955e-004 -6.69077854e-005
      -1.50785927e-004 1.40381002e-004 4.27040213e-004 3.57858633e-004
      1.72298038e-004 3.89538327e-005 1.15074516e-004 2.04902200e-004
      3.40572413e-004 2.28136778e-004 3.95387906e-005 1.73042808e-005
      8.12253984e-006 -1.07507847e-004 1.37534356e-004 7.28725645e-005
      6.94190521e-006 -2.10812737e-004 -1.55258618e-004 -4.59980802e-005
      3.07466253e-005 4.37896088e-005 4.07174812e-005 5.90499985e-005
      1.36879244e-004 2.41657151e-004 3.82876809e-004 3.35829158e-004
      1.32373578e-004 -4.00916579e-005 6.03735589e-006 -1.03140614e-004
      1.17050491e-004 1.80547897e-004 -1.18764299e-004 -1.82590302e-004
      -8.14534451e-006 4.80869312e-006 2.10551647e-004 5.43021633e-005
      -4.73977525e-005 -9.03275213e-005 1.18186726e-004 1.79383191e-004
      2.68081676e-005 -1.70057072e-004 -1.19800869e-004 -4.31172339e-005
      -3.51747585e-005 8.99342012e-006 1.13477217e-004 1.93090935e-004
      7.52655469e-005 -3.28280657e-005 -1.34646980e-004 -1.16265030e-004
      3.08203453e-004 4.52413689e-004 1.39267315e-004 3.04279297e-006
      -3.40890961e-006 -9.06501882e-005 1.63232748e-004 4.81750722e-005
      -4.72375395e-005 1.16437732e-005 3.12643126e-004 3.27782502e-004
      6.18704216e-005 -2.86806753e-004 -3.71826100e-005 1.51056829e-005
      -7.17947696e-005 -1.49755855e-004 -6.56825068e-005
      -5.14957173e-006 5.24752322e-005 4.19878525e-005 -1.40073127e-004
      -9.25563072e-005 2.53308739e-004 4.07425367e-004 6.39939681e-005
      -1.01740872e-004 -1.26355560e-004 -2.53435283e-004 5.84154586e-005
      8.60832151e-005 4.50816297e-005 7.72326603e-005 2.42154856e-004
      2.74228543e-004 1.49590705e-004 -5.16024957e-005 5.83518813e-005
      4.80220697e-005 -1.29420892e-004 -2.68489792e-004 -1.62989862e-004
      1.12875559e-005 1.27932566e-004 3.00361629e-004 5.04889991e-004
      3.41998180e-004 4.42994933e-004 4.04000457e-004 1.44352698e-005
      -8.19541528e-005 4.84201373e-005 6.62605180e-006 6.20452702e-005
      1.67146223e-004 1.09807967e-004 1.07676840e-006 -2.75021775e-005
      6.66761480e-005 2.64287402e-004 3.36498371e-004 9.01945168e-005
      3.02860535e-005 -2.14206797e-004 -3.01613472e-004 -1.90765102e-004
      1.06481566e-005 2.63007154e-004 5.37309737e-004 9.05289315e-004
      6.35709323e-004 6.02467509e-004 4.14818904e-004 3.81684840e-005
      9.57911652e-006 1.17706768e-004 9.85782244e-005 1.54003690e-004
      2.10294398e-004 -4.81062125e-006 -1.39523385e-004 -2.45280797e-004
      -9.96980598e-005 1.97737783e-004 4.04829567e-004 3.92356946e-004
      1.98143825e-004 -5.48164223e-007 -1.57405681e-004 -1.70775020e-004
      -5.30835678e-005 1.04611747e-004 3.05742287e-004 4.58708993e-004
      2.76636914e-004 3.23694461e-004 2.81039509e-004 -5.55986153e-005
      -8.62243251e-005 -1.07657223e-004 -2.92770215e-004 2.66137591e-004
      1.82322736e-004 -1.36072995e-004 -2.05689314e-004 -2.30225400e-004
      -1.37811498e-004 1.18866767e-004 2.68688484e-004 3.32795782e-004
      2.08670317e-004 1.15101779e-004 5.13283740e-005 -6.66133055e-005
      -1.37602343e-004 -1.25121762e-004 -1.40032818e-004
      -2.77848467e-005 -6.72066017e-005 6.01791726e-005 3.88003864e-005
      -1.72046479e-004 -1.68945393e-004 -2.38390086e-004
      -5.98091399e-004 3.27018410e-004 2.10668542e-004 -1.25114835e-004
      -8.62576344e-005 -1.08022803e-004 -7.19442687e-005 6.72883616e-005
      1.65065343e-004 -1.23361751e-004 -9.22252075e-005 2.96066100e-005
      1.10402842e-004 9.64720857e-006 -7.49282044e-005 -1.47334053e-004
      -2.95437028e-004 -1.09770866e-004 -1.63496181e-004
      -5.02988478e-005 -1.54647933e-004 -3.13403027e-004
      -1.69624705e-004 -1.83062395e-004 -5.80374675e-004 3.73849471e-004
      1.67314021e-004 -1.81921627e-004 -6.09576236e-005 1.92078602e-004
      1.20027158e-004 -2.18747664e-005 -2.38991226e-004 -1.63488570e-004
      -1.83835538e-004 -1.03908416e-004 3.19197738e-007 1.07340784e-004
      1.13205017e-004 7.83548749e-005 1.52495786e-005 -6.12661752e-005
      -1.15775918e-004 -1.23355916e-004 -9.55774667e-005
      -1.26667073e-004 -2.54191924e-004 -4.10637906e-004
      -3.92929942e-004 2.16401939e-004 8.13141887e-005 -1.47055689e-004
      3.68853807e-006 2.12457497e-004 1.52460867e-004 -1.12962771e-005
      -2.49547738e-004 -4.38707102e-005 -7.02584730e-005
      -7.45810976e-005 -1.15293378e-005 8.00962080e-005 1.27252148e-004
      6.34493990e-005 8.58697604e-005 3.28089722e-004 2.26837132e-004
      1.66372294e-004 1.25797276e-004 1.17133997e-004 -2.38216307e-005
      -2.09264632e-004 -2.81771354e-004 -3.59567202e-005
      -6.33855161e-005 -1.42222634e-004 8.15576277e-005 2.41611386e-004
      1.26449784e-004 -6.51057562e-005 -2.30609905e-004 1.38088173e-004
      8.95107514e-005 4.91375504e-005 8.16165993e-005 1.33024776e-004
      1.07815591e-004 1.03654223e-004 8.68544375e-005 3.08678311e-004
      1.63798075e-004 9.13921103e-005 1.27143474e-004 2.51999067e-004
      1.98032794e-004 1.29999044e-005 -1.11310474e-004 -1.45926766e-004
      -7.40396063e-005 1.78069513e-005 2.11680526e-004 3.00299056e-004
      2.02776690e-004 6.20186329e-005 -6.82366735e-005 1.11341564e-004
      1.69115097e-004 2.19614187e-004 2.61865236e-004 1.98862093e-004
      1.16473057e-004 6.97776995e-005 6.20321443e-005 -4.37684548e-006
      -1.16582982e-004 -1.21504541e-004 -5.15533259e-007 2.49489734e-004
      3.22945009e-004 1.75421650e-004 -2.37500990e-005 2.77520139e-005
      4.56366070e-005 1.35743045e-004 2.90639204e-004 3.49744834e-004
      2.69183278e-004 2.37334636e-004 1.76858855e-004 -2.28237104e-006
      1.14625451e-004 2.45559728e-004 3.39320628e-004 2.79524917e-004
      1.16736985e-004 4.07252883e-005 6.54839459e-006 -9.69214816e-005
      -1.10487686e-004 -7.78035101e-005 7.58627357e-005 3.49916809e-004
      4.26884566e-004 2.64304719e-004 9.33589763e-005 8.12150392e-005
      4.90002640e-005 7.26283179e-005 1.62243625e-004 1.88586215e-004
      2.09667516e-004 2.10713799e-004 1.89318220e-004 -1.42056728e-004
      -8.78803348e-006 1.64422585e-004 2.58177519e-004 1.92232648e-004
      4.17425108e-005 -1.84014680e-005 -1.84011810e-006 -8.54880345e-005
      -2.37581935e-005 4.78792754e-005 1.37705676e-004 3.03034525e-004
      3.54427291e-004 2.38366018e-004 1.20610282e-004 9.14096927e-006
      -8.90942028e-005 -1.03401209e-004 -2.95302034e-005
      -1.36485769e-005 3.66304448e-005 4.40935437e-005 5.44422728e-005
      -1.33458569e-004 -8.65624679e-005 -6.06916292e-005 1.71421780e-005
      -2.27823748e-005 -8.18469416e-005 -6.91739915e-005 1.16943947e-005
      -1.82000993e-004 7.95979577e-006 1.29039676e-004 1.24128535e-004
      1.26759784e-004 1.88130289e-004 1.45047583e-004 9.82817292e-005
      -3.31388837e-005 -1.58922368e-004 -1.48515814e-004
      -4.10005523e-005 4.14728538e-006 2.76569554e-005 -7.47608419e-006
      -1.13769602e-005 -2.18482564e-005 -1.08690765e-004
      -1.70745276e-004 -2.16745844e-004 -2.11744875e-004
      -2.38983353e-004 -1.16428928e-004 -2.21245100e-005
      -1.83015625e-004 5.28014680e-005 2.53246952e-004 1.20153491e-004
      4.41087286e-005 4.01439393e-005 5.03027222e-005 6.28072958e-005</_></support_vectors>
  <decision_functions>
    <_>
      <sv_count>1</sv_count>
      <rho>2.3613315592785558e+000</rho>
      <alpha>
        1.</alpha></_></decision_functions></opencv_ml_svm>
</opencv_storage>
